{"l1_weight": [[-0.6297098398208618, -0.08684583753347397, 0.22407835721969604, -0.021044062450528145], [-0.28922638297080994, -0.4892367124557495, 0.1978263109922409, 0.23307636380195618], [-0.29494306445121765, -0.40714943408966064, 0.32816439867019653, 0.26103559136390686], [-0.25961288809776306, 0.5122252702713013, 0.6275070905685425, -0.21699000895023346], [0.024408653378486633, 0.4037926495075226, 0.11607113480567932, -0.12863071262836456], [0.43183282017707825, -0.3153906464576721, 0.5362011790275574, 0.6241772770881653], [-0.5617498159408569, 0.4588005840778351, 0.3690791130065918, 0.5814879536628723], [0.10449144244194031, 0.3458503186702728, -0.28003808856010437, -0.5065007209777832], [-0.24333742260932922, -0.10753871500492096, 0.07356062531471252, 0.381415456533432], [3.582968588489166e-07, 8.397729288844857e-06, -1.3512535588233732e-05, -0.1025877371430397], [0.2846660912036896, 0.44333210587501526, -0.3222745358943939, 0.5266744494438171], [0.38912683725357056, -0.533168613910675, 0.18223097920417786, 0.3823813796043396], [0.6246358156204224, 0.4563252031803131, 0.42544424533843994, -0.2918604612350464], [0.38531917333602905, 0.6515242457389832, 0.557208240032196, 0.18327809870243073], [-0.22406673431396484, 0.0393340028822422, -0.25078901648521423, 0.004308735020458698], [-0.00012912850070279092, -0.23813411593437195, -0.25359249114990234, -9.708047628009808e-07], [0.5441479086875916, -0.08149630576372147, -0.528662383556366, -0.45147013664245605], [0.42512184381484985, 0.04936358332633972, -0.3546333312988281, 0.11990727484226227], [-0.1655607968568802, 0.46845105290412903, -0.3695218861103058, -0.36367639899253845], [0.057217128574848175, -0.16858112812042236, -0.000457327114418149, -2.723316811170662e-06], [0.6555371284484863, 0.189585343003273, -0.020957937464118004, -0.21803942322731018], [0.22358375787734985, 0.06905493140220642, -0.0014945684233680367, -0.2690766155719757], [-0.619725227355957, 0.2532099783420563, -0.3353111743927002, 0.5173603296279907], [-0.041491467505693436, 0.23285137116909027, 0.5631819367408752, 0.10038851946592331], [0.3955933749675751, 0.23242442309856415, -0.5239378809928894, 0.1177600622177124], [-0.2500503957271576, 0.7384563088417053, -0.05858324095606804, 0.6126932501792908], [-1.342865061815246e-06, -4.3815447270389996e-07, -0.03669532388448715, -0.18809904158115387], [-0.32212263345718384, -0.17640312016010284, 0.2910667955875397, 0.38465699553489685], [0.5239141583442688, -0.5200295448303223, -0.0032712772954255342, 0.4615256190299988], [-0.24209155142307281, -0.5339286923408508, 0.4032262861728668, 0.36886176466941833], [-0.07605136930942535, -0.10481937229633331, -0.28462183475494385, 9.240515282726847e-06], [0.3323718011379242, -0.6152461171150208, 0.1456630975008011, 0.4277467429637909]], "l1_bias": [0.48650768399238586, 0.42028719186782837, 0.32102063298225403, 0.016150828450918198, 0.12866903841495514, 0.1904909610748291, -0.09430176019668579, 0.475273072719574, 0.11168999969959259, -0.32813024520874023, -0.19057297706604004, 0.036343518644571304, -0.27474844455718994, 0.4527078866958618, -0.0786861777305603, -0.00019527731637936085, 0.6140651702880859, 0.08718866854906082, 0.5023283958435059, -0.26930245757102966, -0.018533678725361824, -0.277847021818161, 0.4512268304824829, 0.07461627572774887, 0.41895392537117004, -0.2221372425556183, -0.0052681658416986465, 0.1623106300830841, 0.23310931026935577, 0.2578088343143463, -0.05221331864595413, 0.36065277457237244], "l2_weight": [[0.03667653352022171, -0.0347316600382328, -0.3276992440223694, 0.36175668239593506, 0.3310268223285675, -0.18147316575050354, 0.07059255987405777, 0.2119140625, -0.17873457074165344, -0.001419235486537218, 0.20305706560611725, -0.06380872428417206, 0.18556860089302063, 0.2027885913848877, -3.931701940018684e-05, 0.00025905101210810244, 0.09263595938682556, 0.15586009621620178, 0.06502238661050797, -1.7932607079274021e-06, 0.08773187547922134, 0.09880288690328598, 0.23262576758861542, 0.1006600633263588, 0.03985194116830826, 0.17242364585399628, -0.0035330126993358135, -0.05588170140981674, -0.03218301013112068, -0.27030035853385925, 1.1046172403439414e-06, -0.23884566128253937], [-0.34391555190086365, -0.09138812869787216, 0.03702007979154587, 0.13619837164878845, 0.1976218819618225, 0.11445734649896622, 0.05917809158563614, -0.22978605329990387, -0.07959695905447006, 0.0001798897865228355, 0.10066301375627518, -0.031423419713974, 0.3341709077358246, 0.15695177018642426, -2.1670265937245858e-07, -0.034549206495285034, -0.27384158968925476, 0.08792748302221298, -0.24527770280838013, 3.812085560639389e-05, 0.1011747196316719, -0.0325026698410511, 0.01880619116127491, 0.07367227226495743, -0.03579011559486389, 0.19809012115001678, -5.416777639766224e-06, 0.0743836984038353, 0.20981669425964355, -0.14708825945854187, 0.026787206530570984, 0.17623844742774963], [-0.028355270624160767, 0.034740570932626724, -0.062184445559978485, 0.020510233938694, -0.053712163120508194, -0.014903753064572811, -0.09425896406173706, -0.11259904503822327, -0.052222639322280884, 0.0003680344671010971, -0.004500472918152809, 0.05520980432629585, 0.00045910695916973054, -0.03949335590004921, 0.0011735106818377972, -4.48029186372878e-06, 0.04357025399804115, -0.09851036965847015, -0.009818896651268005, 0.002088968176394701, -0.006280753295868635, 0.010410348884761333, -0.10846643149852753, 0.028312241658568382, 0.14098434150218964, -0.011705298908054829, 8.042660738283303e-06, 0.014220444485545158, -0.013703996315598488, 0.05132641643285751, 0.0009967646328732371, -0.06154991313815117], [0.2924380600452423, 0.13299381732940674, 0.20179615914821625, 0.3568844795227051, 0.08004819601774216, -0.08877795189619064, 0.21704871952533722, -0.04080675542354584, 0.22410577535629272, 1.972749714695965e-07, -0.19043731689453125, 0.02931002341210842, 0.07008369266986847, 0.07487626373767853, 0.031214339658617973, 0.003281114622950554, -0.1984051764011383, -0.15376876294612885, 0.11183234304189682, 0.03805896267294884, -0.20153476297855377, -0.07649639248847961, -0.13479751348495483, 0.2865515649318695, -0.06097894906997681, -0.05959596484899521, 8.111770875984803e-05, 0.23880721628665924, 0.019088558852672577, 0.10534809529781342, -4.550491667032475e-06, 0.05299816280603409], [-0.33180150389671326, -0.12618006765842438, -0.1034315824508667, 0.07612932473421097, 0.09997037798166275, 0.12364707142114639, -0.0022168797440826893, 0.12342114746570587, -0.2535897195339203, 0.016956551000475883, 0.1665811687707901, -0.24801158905029297, 0.1559443324804306, 0.17569677531719208, -4.184469162282767e-07, 2.758706614258699e-07, 0.15996772050857544, 0.2626796066761017, 0.17741435766220093, -0.010097199119627476, 0.2491815984249115, -0.03911297023296356, -0.05685322359204292, 0.27032533288002014, 0.1956058293581009, -0.012948737479746342, 3.1992294680094346e-07, -0.2201962172985077, 0.07161543518304825, -0.20576301217079163, 0.014871351420879364, -0.03618638217449188], [0.11524219065904617, -0.16732610762119293, -0.13545098900794983, 0.06837303936481476, -0.15256811678409576, -0.10625263303518295, -0.12086373567581177, -0.09730532020330429, 0.08537103980779648, 1.1117052167719521e-07, 0.07402746379375458, 0.09138350188732147, -0.010873408056795597, -0.017549311742186546, 0.011268815957009792, -1.9575434635044076e-05, -0.11953911930322647, 0.0282878577709198, -0.08640924096107483, 1.0930452845059335e-05, -0.016507361084222794, 2.897098966059275e-05, 0.10556000471115112, -0.08815287798643112, 0.03362441435456276, -0.02988383360207081, -0.03051845356822014, 0.0637679323554039, -0.03886450454592705, 0.08405611664056778, 1.4252585742724477e-06, 0.018271910026669502], [0.06391409784555435, 0.06646411865949631, 0.08960845321416855, 0.13428501784801483, 0.3572956323623657, -0.03852732107043266, 0.3372547924518585, 0.28875312209129333, 0.1414915919303894, -0.018261026591062546, -0.254048615694046, -0.30015847086906433, -0.020396117120981216, -0.003726446069777012, -1.6722959117032588e-05, -0.011919153854250908, -0.08860085904598236, -0.07217111438512802, 0.09555614739656448, 1.2860308515882934e-06, -0.03052985668182373, -0.013581875711679459, 0.19307856261730194, 0.025573931634426117, 0.06598301976919174, 0.23477458953857422, 0.03953193873167038, 0.16899345815181732, -0.2371511161327362, -0.16215403378009796, -8.517346259395708e-07, -0.13297174870967865], [-0.31842413544654846, -0.0013653747737407684, 0.028578877449035645, -0.22088474035263062, 0.011107164435088634, 0.31596511602401733, -0.10602466017007828, -0.3128853440284729, 0.2886408269405365, 0.0006620693020522594, 0.125513955950737, 0.30064746737480164, -0.0981561616063118, 0.15596768260002136, -0.012256256304681301, 0.02612905390560627, 0.05695117264986038, 0.15736006200313568, -0.04751771315932274, 6.221101784831262e-07, 0.024889206513762474, -0.05621085688471794, -0.1542425900697708, 0.10239540785551071, 0.05319803208112717, 0.0030785356648266315, 8.66995776505064e-07, 0.0810515284538269, 0.22603553533554077, 0.10957605391740799, -0.014531022869050503, 0.14489546418190002], [0.07029697299003601, 0.22881610691547394, 0.27584826946258545, 0.2056247740983963, 0.051222775131464005, 0.1386099010705948, 0.3794415593147278, -0.05059639364480972, 0.08910076320171356, 0.01151273399591446, 0.21042488515377045, -0.18065018951892853, -0.2779020071029663, 0.17161555588245392, -1.0365444040871807e-06, -7.408607871184358e-06, -0.003988449461758137, -0.21759463846683502, -0.0449594184756279, 0.02217000350356102, -0.011714543215930462, 0.1085253432393074, 0.2853517234325409, 0.20602227747440338, -0.07395438104867935, 0.08615949004888535, -0.0036169018130749464, 0.17693792283535004, -0.17005814611911774, -0.03631458058953285, -0.027692770585417747, -0.08838655799627304], [0.21983440220355988, 0.022750066593289375, 0.09831230342388153, 0.11426577717065811, 0.12348698824644089, 0.02894718199968338, 0.26050588488578796, -0.30934739112854004, 0.2867143750190735, -7.6541718954104e-06, 0.05856790021061897, 0.12555931508541107, -0.13452792167663574, 0.08241269737482071, 1.889507994512485e-11, -0.030376695096492767, -0.3458680808544159, -0.1259995698928833, 0.027582228183746338, 0.0018506686901673675, -0.18348172307014465, 0.026799097657203674, 0.24949848651885986, 0.028769733384251595, -0.09860008209943771, 0.25445520877838135, 6.655791473519912e-09, 0.2234598696231842, -0.00436644721776247, 0.25854068994522095, 2.6046953280456364e-05, 0.01700759120285511], [-0.16580890119075775, -0.14958126842975616, -0.03168357163667679, -0.06842005997896194, 0.11385589092969894, 0.07356533408164978, -0.08293584734201431, -0.07022237032651901, -0.03418761119246483, -3.153127909172326e-05, 0.214992493391037, 0.36686626076698303, 0.08210014551877975, 0.015855710953474045, 1.0553183528827503e-05, 3.927194484276697e-05, 0.02614486776292324, 0.09634864330291748, -0.27312302589416504, 0.027781633660197258, 0.38090580701828003, -0.041323836892843246, -0.2509402334690094, 0.1403573602437973, 0.13030430674552917, -0.20373232662677765, -0.005684926640242338, 0.04759126156568527, 0.06149040907621384, 0.04152194783091545, 4.562920366879553e-06, 0.32148367166519165], [-0.025434883311390877, 0.24610351026058197, 0.16261793673038483, -0.19670505821704865, 0.07325531542301178, 0.13529792428016663, 0.25490304827690125, -0.1472160667181015, 0.16291281580924988, -0.025684062391519547, 0.34924620389938354, 0.21114540100097656, -0.06121395155787468, 0.034109439700841904, -6.852527434375588e-08, 0.00029767988598905504, 0.054167941212654114, 0.261398047208786, -0.002071656286716461, 0.009339779615402222, 0.030292676761746407, -0.027023080736398697, 0.13470031321048737, -0.22778980433940887, -0.011776495724916458, 0.24054130911827087, 0.00211372715421021, 0.15642403066158295, 0.3018343150615692, -0.034602731466293335, -0.0004820539616048336, 0.02998393401503563], [0.04987039044499397, 0.1868305504322052, 0.027201196178793907, 0.17690147459506989, 0.0973338633775711, -0.08853050321340561, 0.16782984137535095, -0.05415825545787811, 0.2656577527523041, 0.0001688295742496848, -0.07852800190448761, -0.08802666515111923, 0.017992636188864708, 0.11985871195793152, -0.015394004993140697, -0.033627960830926895, -0.10965967923402786, -0.3555150330066681, -0.20845234394073486, -0.03342221677303314, -0.24714979529380798, -0.08581928163766861, 0.2327776700258255, 0.2359374314546585, -0.1291850507259369, 0.08393009006977081, -0.003920942544937134, 0.12013108283281326, 0.12705567479133606, 0.07896334677934647, -2.8186650524730794e-06, 0.18255960941314697], [0.0852951630949974, 0.1338949054479599, 0.12374814599752426, -0.16141565144062042, -0.20773433148860931, 0.2877577841281891, -0.0244169682264328, -0.041990190744400024, 0.20868180692195892, 0.008441462181508541, -0.07221435010433197, 0.09896628558635712, -0.10211806744337082, 0.0850931778550148, -0.01520561333745718, 0.029216494411230087, -0.04797111451625824, -0.1632787585258484, -0.3135168254375458, 0.01473879162222147, 0.1653548777103424, 0.08287344127893448, -0.11552064120769501, 0.007012391462922096, -0.09629593789577484, -0.24150052666664124, -3.865431153826648e-06, -0.0014761139173060656, 0.2049245685338974, 0.12467894703149796, -2.252863851026632e-06, 0.2651311457157135], [0.1654941290616989, 0.096773162484169, -0.054133106023073196, 0.22952371835708618, -0.09299128502607346, -0.026034260168671608, 0.2378108650445938, -0.01705859787762165, -0.10939071327447891, 8.470863122056471e-07, 0.20759662985801697, -0.0668073371052742, 0.04926498979330063, 0.03448634222149849, 0.01624174229800701, -1.0848175691080542e-09, -0.16659459471702576, -0.00045238540042191744, -0.08397191762924194, -0.030893253162503242, 0.0542953684926033, 0.03607220947742462, 0.035004373639822006, -0.05842535197734833, 0.08398742973804474, 0.20985262095928192, 0.02919478341937065, 0.173646479845047, 0.057170283049345016, -0.15867455303668976, 7.323766340050497e-07, -0.05862676352262497], [-0.2474181354045868, 0.06538749486207962, 0.011851649731397629, -0.2593524754047394, -0.009056822396814823, -0.03121580369770527, 0.058266617357730865, -0.07656378298997879, -0.08918314427137375, 0.0016766602639108896, 0.3616810441017151, 0.19683146476745605, 0.2560967803001404, 0.1241896003484726, -2.776631333745172e-07, -0.006794746033847332, -0.009665959514677525, 0.38961952924728394, -0.056651193648576736, 0.00388698885217309, 0.2555914521217346, 0.02685903199017048, -0.011520365253090858, -0.0828380361199379, -0.0646972730755806, -0.053832028061151505, 0.038480088114738464, 0.07773210853338242, 0.2316000759601593, -0.0778525173664093, -2.768247668427648e-06, -0.08813092112541199], [0.33611980080604553, 0.3430493175983429, 0.11483651399612427, -0.08630284667015076, -0.07821778208017349, 0.09274183958768845, -0.1504879891872406, 0.23310723900794983, 0.2387639582157135, -2.36102678172756e-05, -0.3026619851589203, 0.3337121307849884, -0.27224552631378174, 0.05183686316013336, 0.03389354050159454, 4.972193437424721e-06, 0.11335622519254684, -0.1395457684993744, -0.006366901099681854, 1.289734655074426e-06, -0.17662397027015686, 0.051744814962148666, 0.30396872758865356, 0.035256508737802505, -0.030259994789958, -0.360174298286438, 0.0013819355517625809, 0.16877587139606476, 0.007492185570299625, 0.2809709310531616, 6.787219035686576e-07, 0.3047703206539154], [0.298712819814682, 0.1181216835975647, 0.05176981911063194, 0.08326408267021179, 0.06287563592195511, -0.04598183557391167, -0.039853088557720184, 0.36835455894470215, -0.26461032032966614, 0.013570723123848438, -0.22905577719211578, -0.13613446056842804, -9.416887769475579e-05, 0.17888672649860382, 0.005542810540646315, 0.019178003072738647, 0.3561743199825287, 0.2562248706817627, 0.3632812798023224, -5.434633294498781e-06, 0.007684658747166395, -0.0026760511100292206, 0.051106031984090805, 0.014825774356722832, 0.0739300400018692, -0.16151824593544006, -8.26966243039351e-06, -0.2674587666988373, -0.08364858478307724, -0.17557866871356964, -0.04017321392893791, -0.05120344087481499], [0.023125257343053818, -0.08249278366565704, -0.23280838131904602, 0.07553146034479141, 0.1400478035211563, -0.01954134926199913, 0.2666398286819458, 0.008769850246608257, -0.2311156541109085, -0.014573187567293644, 0.013676028698682785, -0.4028465151786804, 0.18626953661441803, 0.08746828883886337, 0.0014961649430915713, 0.00495896814391017, 0.06865131855010986, -0.09794069826602936, 0.27949222922325134, 0.0012545561185106635, 0.18197613954544067, -0.07625193148851395, 0.17173057794570923, 0.026246296241879463, 0.1129254549741745, 0.14290621876716614, -0.029036929830908775, -0.06556189060211182, -0.11740489304065704, -0.20893357694149017, -2.0017012502648868e-05, -0.11894012987613678], [0.0588541179895401, 0.10886617004871368, 0.035803597420454025, 0.24704337120056152, 0.25856760144233704, 0.1376206874847412, -0.2324017435312271, 0.09788528829813004, -0.24561968445777893, 0.033217061311006546, -0.3957832157611847, 0.15054000914096832, 0.33117666840553284, 0.11542315036058426, -8.225569558817369e-07, -0.01636350154876709, -0.019472017884254456, -0.02013479918241501, -0.03191358596086502, 1.4531780834659003e-05, 0.22329281270503998, 0.05573229864239693, -0.2922421097755432, 0.07545638829469681, -0.15069635212421417, -0.16503074765205383, -0.014650491997599602, 0.09693906456232071, 0.1196659505367279, 0.05085987597703934, 0.01775485835969448, 0.04828384518623352], [0.10934404283761978, 0.2590348422527313, 0.328041136264801, -0.24503447115421295, 0.007355224806815386, 0.09663595259189606, 0.08854007720947266, 0.0280464980751276, 0.22979554533958435, 0.011177148669958115, -0.16392292082309723, 0.09757429361343384, -0.06222941726446152, 0.04270649328827858, -6.680019168925355e-07, 0.020871801301836967, -0.1153995543718338, 0.059413667768239975, -0.0837898850440979, 0.0006281015230342746, -0.1380898654460907, -0.03731953352689743, -0.020840821787714958, -0.030174607411026955, 0.012148899957537651, -0.38593509793281555, 2.285460323037114e-05, 0.33871743083000183, 0.16186761856079102, 0.29109278321266174, -0.0362112857401371, 0.19071681797504425], [-0.01783590205013752, 0.04197528585791588, -0.047074344009160995, 0.3513769507408142, 0.05210336297750473, 0.11413465440273285, -0.17730794847011566, 0.20336109399795532, -0.0390312634408474, -0.007566521875560284, -0.38955286145210266, -0.1076410636305809, 0.37655943632125854, -0.05285158008337021, -8.145339961629361e-06, -0.03331390395760536, 0.11831192672252655, 0.13361471891403198, 0.10652828961610794, 0.006332527380436659, 0.3369736969470978, -0.0711134597659111, -0.3444671332836151, 0.22551050782203674, 0.05385561287403107, -0.23121826350688934, -0.026876522228121758, -0.0660126805305481, 0.10468198359012604, 0.10060135275125504, 0.007840539328753948, 0.14925912022590637], [0.05589286983013153, 0.09755972772836685, 0.05535250902175903, -0.12195661664009094, -0.10064708441495895, 0.120076984167099, 0.37513402104377747, -0.06185990944504738, 0.34943586587905884, 0.016288116574287415, 0.3660946488380432, 0.2581837773323059, -0.3172506093978882, -0.028842702507972717, 3.199507045792416e-05, 2.545072902648826e-06, 0.007333012763410807, 0.13904693722724915, 0.24420291185379028, 0.0032389811240136623, -0.3095073699951172, 0.0440215989947319, 0.40127843618392944, -0.015010819770395756, 0.24287478625774384, 0.395262211561203, 0.00030908823828212917, 0.19068185985088348, -0.007194372359663248, 0.2356465607881546, -0.02661157213151455, 0.2323876917362213], [0.13308469951152802, -0.13532069325447083, -0.19801492989063263, 0.18988679349422455, 0.08868911862373352, -0.14201220870018005, 0.23899723589420319, 0.039778850972652435, 0.07100752741098404, -2.3854001938161673e-06, 0.20845596492290497, -0.13545432686805725, 0.2401731014251709, 0.22836919128894806, -4.846245701628504e-06, -3.8205707824090496e-05, 0.04116397351026535, -0.24071981012821198, 0.02057347632944584, -0.03376831114292145, -0.09628678858280182, 0.05268675833940506, 0.21992678940296173, 0.17511160671710968, 0.1451028287410736, 0.27816081047058105, -0.012829499319195747, -0.180165633559227, -0.2565937340259552, -0.28290700912475586, 3.839675264316611e-05, -0.06391432136297226], [0.27391302585601807, 0.26031696796417236, 0.22464591264724731, 0.11142338812351227, 0.03456057608127594, 0.1812925636768341, 0.30707642436027527, -0.04985475912690163, 0.047837190330028534, -0.00819077342748642, -0.37799179553985596, 0.20310050249099731, 0.09149378538131714, 0.032502397894859314, -0.015415999107062817, -0.01085649523884058, -0.15957772731781006, -0.2463139295578003, -0.13757427036762238, -0.013033311814069748, -0.16992126405239105, 0.011488034389913082, 0.11838355660438538, 0.32542070746421814, -0.062003012746572495, -0.17427794635295868, -6.94489644956775e-05, 0.17174431681632996, 0.10903256386518478, 0.08541254699230194, -3.3294934837613255e-05, -0.009408875368535519], [-0.12249249219894409, -0.06587407737970352, -0.06674251705408096, 0.03760192543268204, -0.09329444915056229, -0.01169427391141653, 0.07881426066160202, -0.19164349138736725, 0.05612814798951149, 4.197834641672671e-06, 0.03333217278122902, -0.10401388257741928, 0.0029487835709005594, -0.1168123409152031, -1.7637153177929576e-06, 0.017475638538599014, 0.06914421916007996, -0.020954998210072517, -0.012811096385121346, -5.2418381528696045e-06, -0.16264601051807404, -0.0005985886673443019, -0.00798729807138443, 0.09434621781110764, 0.10408540070056915, 0.025899609550833702, 1.7333966297883308e-06, -0.17662905156612396, -0.1888907104730606, 0.017448697239160538, 0.04196855425834656, -0.0584857203066349], [-0.11675801873207092, 0.00874229148030281, -0.15904220938682556, 0.18613974750041962, 0.2052077353000641, 0.16800375282764435, 0.05749289318919182, 0.2213285118341446, -0.30505770444869995, 0.002525012707337737, -0.26089951395988464, -0.24735914170742035, 0.3093906342983246, 0.2598760426044464, 0.031967710703611374, -2.099925779930345e-07, 0.1924523413181305, -0.19089581072330475, -0.04926120862364769, 1.6890098777366802e-06, 0.08159027248620987, -0.023584092035889626, -0.13596677780151367, 0.27044007182121277, 0.07822118699550629, -0.2927680015563965, -2.3355516532319598e-05, 0.05217696726322174, -0.05911768972873688, -0.1519497036933899, 1.2263629969311296e-06, -0.157996267080307], [-0.14627213776111603, -0.25458598136901855, -0.34336116909980774, -0.2710740864276886, 0.012658036313951015, -0.018069718033075333, -0.05400333181023598, 0.34018269181251526, 0.1182849258184433, 0.004787525627762079, 0.2800450325012207, -0.21020299196243286, 0.11304719746112823, 0.0066599356941878796, -1.4934979617464705e-06, -4.40602116213995e-06, 0.33185428380966187, 0.224503755569458, 0.08878541737794876, 2.638034004576184e-07, 0.25838443636894226, 0.01066229771822691, 0.11219531297683716, 0.03792456164956093, 0.13108162581920624, 0.16201870143413544, 7.387111509160604e-07, -0.07715578377246857, 0.25230079889297485, -0.19270563125610352, 6.764219870092347e-05, -0.005371562670916319], [-0.30575644969940186, -0.14499370753765106, -0.07304558902978897, -0.1963428258895874, 0.15996310114860535, 0.08480843156576157, 0.11732979863882065, -0.04528744891285896, 0.10791516304016113, -0.0052926186472177505, 0.334249883890152, 0.04814325273036957, 0.3842042088508606, 0.18770663440227509, 0.02304041013121605, 0.0037048636004328728, -0.2291533350944519, 0.15943776071071625, -0.280423104763031, 0.006347016431391239, 0.10391699522733688, 0.0017211682861670852, -0.20125027000904083, 0.21941208839416504, 0.23402069509029388, 0.41390877962112427, -0.0002663958293851465, 0.09831744432449341, 0.23030796647071838, 0.009502280503511429, -2.618132839415921e-06, 0.048274874687194824], [0.2582779824733734, 0.12553930282592773, 0.14591428637504578, 0.06278029829263687, 0.18022418022155762, 0.12173591554164886, 0.150819793343544, 0.026806017383933067, 0.23540815711021423, -4.303446985431947e-06, 0.2460242360830307, -0.17676319181919098, 0.030845509842038155, 0.12309814244508743, -0.005143201909959316, -0.01737634465098381, -0.21093043684959412, -0.304522305727005, 0.11618437618017197, 9.829288501350675e-06, -0.21723832190036774, 0.0015989565290510654, 0.1536208540201187, 0.20631299912929535, -0.13610614836215973, 0.30244210362434387, 6.636847729168949e-07, 0.324997216463089, -0.19039882719516754, 0.04926442727446556, 7.55374514938012e-07, -0.04251325875520706], [-0.1985367238521576, -0.029281994327902794, -0.03992186114192009, 0.010878792963922024, 0.16030950844287872, 0.23247185349464417, -0.12834346294403076, 0.35570263862609863, -0.331992506980896, 0.004574385937303305, -0.1553899347782135, 0.17107097804546356, 0.3390774428844452, -0.037682197988033295, -7.291151996469125e-05, -0.012435278855264187, 0.29094651341438293, 0.1101849228143692, 0.041723813861608505, 2.380852947680978e-06, 0.14080321788787842, 0.0741879940032959, -0.04809051379561424, 0.005711092613637447, 0.06682343035936356, -0.35144665837287903, 1.342721702712879e-06, -0.060366418212652206, 0.1274697631597519, 0.14835263788700104, 0.0035776763688772917, 0.3011930584907532], [-0.1937975287437439, 0.24229411780834198, 0.10100466758012772, -0.3179960548877716, -0.0737924724817276, -0.02687179110944271, -0.1806015521287918, 0.2556053102016449, -0.21306777000427246, -0.0002131505316356197, -0.2203693687915802, 0.12069681286811829, 0.2146833837032318, 0.17534197866916656, -0.008369460701942444, 9.836312528932467e-06, 0.2067199945449829, 0.3365058898925781, 0.08863288164138794, 0.010460312478244305, 0.1095377653837204, 0.13528452813625336, -0.19780167937278748, -0.18978719413280487, 0.2343682497739792, -0.28551429510116577, -0.00040838326094672084, -0.04863891378045082, 0.25120171904563904, -0.1471855640411377, 0.022887982428073883, 0.2699933648109436]], "l2_bias": [0.12180383503437042, -0.07106675952672958, -0.1825442910194397, 0.14302149415016174, -0.08170828223228455, -0.21324045956134796, 0.2848241329193115, -0.03611234948039055, -0.11275127530097961, 0.18838779628276825, 0.11002283543348312, -0.1302100569009781, 0.09829823672771454, 0.19419583678245544, 0.010564418509602547, 0.12297983467578888, 0.05162196233868599, 0.032612863928079605, 0.20705606043338776, 0.169348806142807, 0.08457404375076294, 0.09681044518947601, -0.02661365084350109, 0.11423558741807938, 0.048186466097831726, -0.07472477853298187, -0.0174089428037405, 0.2495567351579666, -0.21129710972309113, 0.060197483748197556, -0.012279579415917397, 0.20241527259349823], "l3_weight": [[0.001907481113448739, 0.25159162282943726, -0.03891921043395996, -0.2963525354862213, 0.27504709362983704, -0.01600491628050804, -0.34910738468170166, 0.23497256636619568, -0.2816896438598633, -0.2820558249950409, 0.30521348118782043, 0.02486763894557953, -0.25045815110206604, 0.0625820904970169, -0.03180360421538353, 0.2877715229988098, -0.3002637028694153, -0.034586839377880096, -0.04596174880862236, 0.15407198667526245, -0.10363300889730453, 0.24448835849761963, -0.2159987986087799, -0.12219434231519699, -0.234554260969162, -0.030422506853938103, 0.21625380218029022, 0.20476840436458588, 0.2320035994052887, -0.17789971828460693, 0.270920068025589, 0.3250606656074524], [0.30113905668258667, 0.14159929752349854, 0.04658728092908859, -0.08543780446052551, 0.2605648636817932, 0.045906443148851395, 0.2993423342704773, -0.19491969048976898, 0.10886246711015701, -0.030414247885346413, -0.15305352210998535, -0.06376896798610687, -0.08748852461576462, -0.3072766661643982, 0.21202903985977173, -0.0030376832000911236, -0.38981911540031433, 0.12495847791433334, 0.3849952518939972, -0.13608640432357788, -0.33706584572792053, -0.015162109397351742, -0.04240582883358002, 0.3435271978378296, -0.21375837922096252, -0.11492585390806198, 0.24508871138095856, 0.18985353410243988, 0.12705975770950317, 0.12180247902870178, -0.1568218320608139, -0.27932968735694885], [-0.1080564484000206, 0.21853794157505035, 0.0662127211689949, 0.254903107881546, -0.051117878407239914, 0.06447814404964447, -0.07648959010839462, 0.019858770072460175, 0.08872348070144653, 0.14373627305030823, 0.06911344826221466, -0.19731444120407104, 0.17916066944599152, 0.1633346825838089, 0.09310494363307953, -0.0769900307059288, -0.07494901865720749, -0.23562614619731903, -0.16191929578781128, 0.2687232196331024, 0.09195410460233688, 0.16509944200515747, -0.19635127484798431, -0.02173842489719391, 0.26687508821487427, 0.05198807641863823, 0.2152278572320938, -0.30635055899620056, 0.09687458723783493, 0.09501238167285919, -0.0544695220887661, -0.20966684818267822], [-0.2096681296825409, 0.29048919677734375, -0.07374226301908493, -0.05854881927371025, -0.1392415165901184, -0.08882290869951248, -0.21757185459136963, 0.24903856217861176, 0.19445395469665527, 0.30260223150253296, 0.08307582885026932, 0.31617099046707153, 0.19448092579841614, 0.17811374366283417, 0.04930724948644638, 0.10879255086183548, -0.06741771847009659, -0.3911325931549072, -0.24685204029083252, -0.338314414024353, 0.18659734725952148, -0.2561079263687134, 0.2554316222667694, -0.07938714325428009, 0.08676433563232422, 0.0033195577561855316, -0.2910711467266083, -0.08183279633522034, 0.2343798130750656, 0.14969922602176666, -0.27387431263923645, -0.2787189483642578]], "l3_bias": [-0.06049683317542076, -0.0744873508810997, -0.1575307995080948, 0.032719675451517105]}